{"learner":{"attributes":{"scikit_learn":"{\"_estimator_type\": \"classifier\"}"},"feature_names":[],"feature_types":[],"gradient_booster":{"model":{"gbtree_model_param":{"num_parallel_tree":"1","num_trees":"50"},"iteration_indptr":[0,1,2,3,4,5,6,7,8,9,10,11,12,13,14,15,16,17,18,19,20,21,22,23,24,25,26,27,28,29,30,31,32,33,34,35,36,37,38,39,40,41,42,43,44,45,46,47,48,49,50],"tree_info":[0,0,0,0,0,0,0,0,0,0,0,0,0,0,0,0,0,0,0,0,0,0,0,0,0,0,0,0,0,0,0,0,0,0,0,0,0,0,0,0,0,0,0,0,0,0,0,0,0,0],"trees":[{"base_weights":[-0E0,3.0274945E-1,-1.0526316E0,4.2285714E-1,-1.4812398E0,-1.230391E0,-3.35426E-1,1.4876232E-1,-4.8399368E-1,-2.968085E-1,-5.0725996E-1,-3.275552E-1,-5.555556E-1,-4.2636458E-2,-4.783784E-1],"categories":[],"categories_nodes":[],"categories_segments":[],"categories_sizes":[],"default_left":[1,1,1,1,0,1,1,0,0,0,0,0,0,0,0],"id":0,"left_children":[1,3,5,7,9,11,13,-1,-1,-1,-1,-1,-1,-1,-1],"loss_changes":[1.9924102E3,1.0410183E3,1.776272E2,6.7727295E2,2.9930603E1,9.429956E1,6.762193E1,0E0,0E0,0E0,0E0,0E0,0E0,0E0,0E0],"parents":[2147483647,0,0,1,1,2,2,3,3,4,4,5,5,6,6],"right_children":[2,4,6,8,10,12,14,-1,-1,-1,-1,-1,-1,-1,-1],"split_conditions":[2.8865913E-2,3.044442E-2,2.9323434E-2,3.8089927E-2,7.011092E-2,2.561414E-2,2.3465967E-2,1.4876232E-1,-4.8399368E-1,-2.968085E-1,-5.0725996E-1,-3.275552E-1,-5.555556E-1,-4.2636458E-2,-4.783784E-1],"split_indices":[380,4959,1976,4839,4959,4959,4959,0,0,0,0,0,0,0,0],"split_type":[0,0,0,0,0,0,0,0,0,0,0,0,0,0,0],"sum_hessian":[6.25E3,4.8545E3,1.3955E3,4.549E3,3.055E2,1.11775E3,2.7775E2,4.39225E3,1.5675E2,9.3E1,2.125E2,9.1625E2,2.015E2,2.4175E2,3.6E1],"tree_param":{"num_deleted":"0","num_feature":"5000","num_nodes":"15","size_leaf_vector":"1"}},{"base_weights":[-1.7872531E-3,2.110366E-1,-7.8150207E-1,-1.5158432E-2,8.5063326E-1,-8.45812E-1,1.0242501E0,-4.9458042E-1,1.7872611E-2,-3.1904724E-1,2.7228704E-1,-1.937578E-1,-3.7532094E-1,3.4390146E-1,-3.456053E-1],"categories":[],"categories_nodes":[],"categories_segments":[],"categories_sizes":[],"default_left":[1,1,1,0,0,0,1,0,0,0,0,0,0,0,0],"id":1,"left_children":[1,3,5,7,9,11,13,-1,-1,-1,-1,-1,-1,-1,-1],"loss_changes":[1.0226682E3,7.004303E2,1.5432367E2,4.368158E2,1.3894409E2,1.026344E2,1.351498E1,0E0,0E0,0E0,0E0,0E0,0E0,0E0,0E0],"parents":[2147483647,0,0,1,1,2,2,3,3,4,4,5,5,6,6],"right_children":[2,4,6,8,10,12,14,-1,-1,-1,-1,-1,-1,-1,-1],"split_conditions":[3.1468276E-2,1.560982E-2,6.1078373E-2,1.1777482E0,1.1777482E0,8.7137304E-2,6.1959732E-2,-4.9458042E-1,1.7872611E-2,-3.1904724E-1,2.7228704E-1,-1.937578E-1,-3.7532094E-1,3.4390146E-1,-3.456053E-1],"split_indices":[380,1976,1574,370,370,380,656,0,0,0,0,0,0,0,0],"split_type":[0,0,0,0,0,0,0,0,0,0,0,0,0,0,0],"sum_hessian":[6.1608145E3,4.840363E3,1.3204519E3,3.5765002E3,1.2638623E3,1.2755559E3,4.4895958E1,1.5555275E2,3.4209475E3,3.6030968E1,1.2278314E3,8.558676E2,4.1968832E2,4.2959213E1,1.9367431E0],"tree_param":{"num_deleted":"0","num_feature":"5000","num_nodes":"15","size_leaf_vector":"1"}},{"base_weights":[-2.5292116E-3,1.01414755E-1,-1.1624763E0,1.7143369E-1,-1.1471272E0,4.7414282E-1,-1.1747044E0,6.936136E-2,-3.9134693E-1,-3.6047196E-1,1.3452946E-1,3.5535403E-2,-3.600492E-1],"categories":[],"categories_nodes":[],"categories_segments":[],"categories_sizes":[],"default_left":[1,1,0,1,1,0,0,0,0,0,0,0,0],"id":2,"left_children":[1,3,5,7,9,-1,11,-1,-1,-1,-1,-1,-1],"loss_changes":[7.2815106E2,4.8474036E2,1.8515686E1,4.6336703E2,2.6118805E1,0E0,1.6440613E1,0E0,0E0,0E0,0E0,0E0,0E0],"parents":[2147483647,0,0,1,1,2,2,3,3,4,4,6,6],"right_children":[2,4,6,8,10,-1,12,-1,-1,-1,-1,-1,-1],"split_conditions":[2.561414E-2,4.2391352E-2,1.3844058E-1,3.8089927E-2,3.8649067E-2,4.7414282E-1,1.8913351E-1,6.936136E-2,-3.9134693E-1,-3.6047196E-1,1.3452946E-1,3.5535403E-2,-3.600492E-1],"split_indices":[4959,536,3900,4839,218,0,4934,0,0,0,0,0,0],"split_type":[0,0,0,0,0,0,0,0,0,0,0,0,0],"sum_hessian":[6.037286E3,5.54161E3,4.9567642E2,5.2481533E3,2.934567E2,1.63072E0,4.940457E2,5.0447E3,2.0345311E2,2.8401215E2,9.444552E0,9.468423E0,4.8457727E2],"tree_param":{"num_deleted":"0","num_feature":"5000","num_nodes":"13","size_leaf_vector":"1"}},{"base_weights":[-4.4030347E-3,1.2899663E-1,-6.2705195E-1,1.91848E-1,-1.2136239E0,-4.294084E-1,-1.0040314E0,7.3488906E-2,-3.8337183E-1,-3.8684118E-1,1.297569E-1,-1.4648686E-1,2.320659E-1,-3.3271006E-1,-5.8591586E-2],"categories":[],"categories_nodes":[],"categories_segments":[],"categories_sizes":[],"default_left":[1,1,1,1,1,1,1,0,0,0,0,0,0,0,0],"id":3,"left_children":[1,3,5,7,9,11,13,-1,-1,-1,-1,-1,-1,-1,-1],"loss_changes":[4.9219305E2,4.120472E2,7.746973E1,3.643177E2,2.782257E1,4.90867E1,3.0257935E1,0E0,0E0,0E0,0E0,0E0,0E0,0E0,0E0],"parents":[2147483647,0,0,1,1,2,2,3,3,4,4,5,5,6,6],"right_children":[2,4,6,8,10,12,14,-1,-1,-1,-1,-1,-1,-1,-1],"split_conditions":[4.3676052E-2,2.5878543E-2,1.8724564E-2,5.014229E-2,7.537189E-2,9.036723E-2,5.5416457E-2,7.3488906E-2,-3.8337183E-1,-3.8684118E-1,1.297569E-1,-1.4648686E-1,2.320659E-1,-3.3271006E-1,-5.8591586E-2],"split_indices":[380,4301,111,4466,1976,1976,1976,0,0,0,0,0,0,0,0],"split_type":[0,0,0,0,0,0,0,0,0,0,0,0,0,0,0],"sum_hessian":[5.923697E3,4.8791533E3,1.0445432E3,4.661781E3,2.1737236E2,6.8667236E2,3.5787088E2,4.49999E3,1.617905E2,2.0800513E2,9.367231E0,6.551967E2,3.1475687E1,3.164171E2,4.1453785E1],"tree_param":{"num_deleted":"0","num_feature":"5000","num_nodes":"15","size_leaf_vector":"1"}},{"base_weights":[-4.882019E-3,-8.570187E-2,9.9997115E-1,3.851789E-1,-2.376415E-1,-1.2156568E0,1.0486246E0,1.3333555E-1,-2.5239992E-1,-3.7671638E-1,-5.320086E-2,-4.627544E-1,1.8711832E-1,-1.19139805E-1,3.303378E-1],"categories":[],"categories_nodes":[],"categories_segments":[],"categories_sizes":[],"default_left":[1,0,0,1,0,1,0,0,0,0,0,0,0,0,0],"id":4,"left_children":[1,3,5,7,9,11,13,-1,-1,-1,-1,-1,-1,-1,-1],"loss_changes":[4.7189044E2,3.848619E2,4.7903107E1,9.578136E1,2.4945001E2,6.828517E0,3.2605255E1,0E0,0E0,0E0,0E0,0E0,0E0,0E0,0E0],"parents":[2147483647,0,0,1,1,2,2,3,3,4,4,5,5,6,6],"right_children":[2,4,6,8,10,12,14,-1,-1,-1,-1,-1,-1,-1,-1],"split_conditions":[2.0661024E-2,1.1819441E0,1.9957522E-1,3.46911E-2,1.1777482E0,5.7565603E-2,1.17712304E-1,1.3333555E-1,-2.5239992E-1,-3.7671638E-1,-5.320086E-2,-4.627544E-1,1.8711832E-1,-1.19139805E-1,3.303378E-1],"split_indices":[1574,1976,3338,4466,370,1546,4362,0,0,0,0,0,0,0,0],"split_type":[0,0,0,0,0,0,0,0,0,0,0,0,0,0,0],"sum_hessian":[5.808538E3,5.376985E3,4.3155353E2,1.3113633E3,4.0656213E3,8.757549E0,4.22796E2,1.2515195E3,5.984382E1,2.2624866E2,3.8393726E3,7.573192E0,1.184357E0,1.4585432E1,4.0821054E2],"tree_param":{"num_deleted":"0","num_feature":"5000","num_nodes":"15","size_leaf_vector":"1"}},{"base_weights":[-3.6597315E-3,6.0095362E-2,-1.0040032E0,1.22805946E-1,-9.619044E-1,-1.045126E0,5.2977735E-1,5.9361413E-2,-2.1013145E-1,-6.986442E-2,-3.0798832E-1,-3.274017E-1,5.249545E-2,4.5022866E-1,-7.058E-2],"categories":[],"categories_nodes":[],"categories_segments":[],"categories_sizes":[],"default_left":[1,1,1,1,0,1,0,0,0,0,0,0,0,0,0],"id":5,"left_children":[1,3,5,7,9,11,13,-1,-1,-1,-1,-1,-1,-1,-1],"loss_changes":[3.6457135E2,3.4453293E2,2.2155853E1,3.130863E2,1.442572E1,1.9017181E1,7.4892673E0,0E0,0E0,0E0,0E0,0E0,0E0,0E0,0E0],"parents":[2147483647,0,0,1,1,2,2,3,3,4,4,5,5,6,6],"right_children":[2,4,6,8,10,12,14,-1,-1,-1,-1,-1,-1,-1,-1],"split_conditions":[3.6375787E-2,4.9034823E-2,6.2118087E-2,3.302606E-2,5.9310533E-2,3.9277267E-2,5.7760984E-2,5.9361413E-2,-2.1013145E-1,-6.986442E-2,-3.0798832E-1,-3.274017E-1,5.249545E-2,4.5022866E-1,-7.058E-2],"split_indices":[3337,4959,3232,2878,461,4934,2618,0,0,0,0,0,0,0,0],"split_type":[0,0,0,0,0,0,0,0,0,0,0,0,0,0,0],"sum_hessian":[5.7144E3,5.372907E3,3.4149268E2,5.0631113E3,3.09796E2,3.3288614E2,8.60655E0,4.6407188E3,4.2239255E2,2.5636148E1,2.8415985E2,3.208395E2,1.2046618E1,3.3689947E0,5.2375555E0],"tree_param":{"num_deleted":"0","num_feature":"5000","num_nodes":"15","size_leaf_vector":"1"}},{"base_weights":[-4.1621984E-3,9.6634245E-1,-6.287762E-2,1.0268772E0,-5.1621366E-1,-1.7339209E-1,4.4426075E-1,3.2080898E-1,-2.6574627E-1,-2.4413149E-1,3.47778E-1,-3.5176936E-1,-3.6843576E-2,1.5002653E-1,-2.8511897E-1],"categories":[],"categories_nodes":[],"categories_segments":[],"categories_sizes":[],"default_left":[0,1,1,1,1,0,1,0,0,0,0,0,0,0,0],"id":6,"left_children":[1,3,5,7,9,11,13,-1,-1,-1,-1,-1,-1,-1,-1],"loss_changes":[3.2096326E2,2.9368073E1,2.9774707E2,2.6062286E1,7.5596585E0,2.2028255E2,7.448854E1,0E0,0E0,0E0,0E0,0E0,0E0,0E0,0E0],"parents":[2147483647,0,0,1,1,2,2,3,3,4,4,5,5,6,6],"right_children":[2,4,6,8,10,12,14,-1,-1,-1,-1,-1,-1,-1,-1],"split_conditions":[9.682026E-1,6.2219907E-2,2.7956367E-2,5.8177225E-2,6.999949E-2,1.3071095E0,4.8234053E-2,3.2080898E-1,-2.6574627E-1,-2.4413149E-1,3.47778E-1,-3.5176936E-1,-3.6843576E-2,1.5002653E-1,-2.8511897E-1],"split_indices":[4934,2320,461,370,3581,4958,4362,0,0,0,0,0,0,0,0],"split_type":[0,0,0,0,0,0,0,0,0,0,0,0,0,0,0],"sum_hessian":[5.6304897E3,3.2032895E2,5.310161E3,3.080579E2,1.2271045E1,4.3605728E3,9.4958826E2,3.0179514E2,6.262765E0,1.0857157E1,1.4138875E0,2.0903644E2,4.151536E3,9.136563E2,3.5931934E1],"tree_param":{"num_deleted":"0","num_feature":"5000","num_nodes":"15","size_leaf_vector":"1"}},{"base_weights":[-2.7795108E-3,9.4486594E-2,-4.9254382E-1,1.3632615E-1,-1.0446965E0,-5.6550324E-1,5.258326E-1,-2.8057545E-1,5.4465447E-2,1.2318704E-1,-3.3570543E-1,2.4800973E-1,-1.8132295E-1,-2.6531988E-1,2.0108151E-1],"categories":[],"categories_nodes":[],"categories_segments":[],"categories_sizes":[],"default_left":[1,1,1,0,0,0,0,0,0,0,0,0,0,0,0],"id":7,"left_children":[1,3,5,7,9,11,13,-1,-1,-1,-1,-1,-1,-1,-1],"loss_changes":[2.6585358E2,2.2206586E2,6.900169E1,2.1786508E2,1.8313248E1,4.7263702E1,1.3290283E1,0E0,0E0,0E0,0E0,0E0,0E0,0E0,0E0],"parents":[2147483647,0,0,1,1,2,2,3,3,4,4,5,5,6,6],"right_children":[2,4,6,8,10,12,14,-1,-1,-1,-1,-1,-1,-1,-1],"split_conditions":[3.806634E-2,2.9445227E-2,7.8309976E-2,1.1777482E0,6.465162E-2,1.0305035E-1,2.613605E-1,-2.8057545E-1,5.4465447E-2,1.2318704E-1,-3.3570543E-1,2.4800973E-1,-1.8132295E-1,-2.6531988E-1,2.0108151E-1],"split_indices":[3318,2179,1976,370,4993,3232,2025,0,0,0,0,0,0,0,0],"split_type":[0,0,0,0,0,0,0,0,0,0,0,0,0,0,0],"sum_hessian":[5.5787896E3,4.6551035E3,9.236861E2,4.4910386E3,1.6406511E2,8.623496E2,6.133653E1,1.8106932E2,4.309969E3,7.751683E0,1.5631342E2,2.2893625E1,8.39456E2,5.222605E0,5.6113922E1],"tree_param":{"num_deleted":"0","num_feature":"5000","num_nodes":"15","size_leaf_vector":"1"}},{"base_weights":[-2.9309667E-3,-1.3551093E0,3.0420197E-2,-1.3842921E0,2.0992303E-1,7.1054734E-2,-1.0688113E0,7.836672E-2,-4.2622718E-1,2.843046E-1,6.4122044E-3,3.452911E-1,-3.287254E-1],"categories":[],"categories_nodes":[],"categories_segments":[],"categories_sizes":[],"default_left":[0,1,1,0,0,0,0,0,0,0,0,0,0],"id":8,"left_children":[1,3,5,7,-1,9,11,-1,-1,-1,-1,-1,-1],"loss_changes":[2.4859624E2,8.925705E0,2.4037895E2,8.241806E0,0E0,2.2597086E2,1.2733841E1,0E0,0E0,0E0,0E0,0E0,0E0],"parents":[2147483647,0,0,1,1,2,2,3,3,5,5,6,6],"right_children":[2,4,6,8,-1,10,12,-1,-1,-1,-1,-1,-1],"split_conditions":[1.1428386E0,1.3010776E-1,4.7562588E-2,4.1984312E-2,2.0992303E-1,9.3348074E-1,1.4276074E-1,7.836672E-2,-4.2622718E-1,2.843046E-1,6.4122044E-3,3.452911E-1,-3.287254E-1],"split_indices":[3338,4118,4839,3236,0,3232,4372,0,0,0,0,0,0],"split_type":[0,0,0,0,0,0,0,0,0,0,0,0,0],"sum_hessian":[5.510598E3,1.3169196E2,5.3789062E3,1.3016963E2,1.5223219E0,5.188058E3,1.9084804E2,2.688437E0,1.274812E2,2.7728195E2,4.9107764E3,1.7881205E0,1.890599E2],"tree_param":{"num_deleted":"0","num_feature":"5000","num_nodes":"13","size_leaf_vector":"1"}},{"base_weights":[-2.970552E-3,-4.7455456E-2,9.546345E-1,1.0996079E-1,-3.293363E-1,-3.2540503E-1,1.0183753E0,4.619492E-2,-2.44597E-1,-1.2204898E-1,1.0917546E-1,6.790273E-2,-3.2126203E-1,3.144435E-1,-3.7999782E-1],"categories":[],"categories_nodes":[],"categories_segments":[],"categories_sizes":[],"default_left":[1,1,0,1,1,1,1,0,0,0,0,0,0,0,0],"id":9,"left_children":[1,3,5,7,9,11,13,-1,-1,-1,-1,-1,-1,-1,-1],"loss_changes":[2.3224823E2,2.3121225E2,2.0078323E1,1.3632639E2,1.0045613E2,5.2760053E0,1.702684E1,0E0,0E0,0E0,0E0,0E0,0E0,0E0,0E0],"parents":[2147483647,0,0,1,1,2,2,3,3,4,4,5,5,6,6],"right_children":[2,4,6,8,10,12,14,-1,-1,-1,-1,-1,-1,-1,-1],"split_conditions":[3.1036152E-2,2.8849768E-2,2.3188257E-1,4.4140812E-2,6.2241793E-2,5.4795086E-2,6.0297746E-2,4.619492E-2,-2.44597E-1,-1.2204898E-1,1.0917546E-1,6.790273E-2,-3.2126203E-1,3.144435E-1,-3.7999782E-1],"split_indices":[218,2453,4301,536,2690,2453,4840,0,0,0,0,0,0,0,0],"split_type":[0,0,0,0,0,0,0,0,0,0,0,0,0,0,0],"sum_hessian":[5.4499043E3,5.20888E3,2.410246E2,3.3427388E3,1.8661412E3,1.1238014E1,2.2978659E2,3.1917197E3,1.5101894E2,1.6788846E3,1.8725653E2,6.858311E0,4.3797026E0,2.2736574E2,2.420845E0],"tree_param":{"num_deleted":"0","num_feature":"5000","num_nodes":"15","size_leaf_vector":"1"}},{"base_weights":[-2.010471E-3,3.3511348E-2,-1.1162664E0,7.620992E-2,-8.651437E-1,-1.1391971E0,2.9815972E-1,-4.0275982E-1,3.115029E-2,-2.896667E-1,1.7660853E-2,-3.515338E-1,1.4633782E-1],"categories":[],"categories_nodes":[],"categories_segments":[],"categories_sizes":[],"default_left":[1,1,1,0,1,1,0,0,0,0,0,0,0],"id":10,"left_children":[1,3,5,7,9,11,-1,-1,-1,-1,-1,-1,-1],"loss_changes":[2.1382983E2,2.0096138E2,9.208252E0,1.9606E2,2.2098099E1,9.348953E0,0E0,0E0,0E0,0E0,0E0,0E0,0E0],"parents":[2147483647,0,0,1,1,2,2,3,3,4,4,5,5],"right_children":[2,4,6,8,10,12,-1,-1,-1,-1,-1,-1,-1],"split_conditions":[3.37899E-2,3.7054963E-2,7.9344995E-2,2.9819268E-1,3.618529E-2,6.410399E-2,2.9815972E-1,-4.0275982E-1,3.115029E-2,-2.896667E-1,1.7660853E-2,-3.515338E-1,1.4633782E-1],"split_indices":[1055,4362,2937,4840,1862,2908,0,0,0,0,0,0,0],"split_type":[0,0,0,0,0,0,0,0,0,0,0,0,0],"sum_hessian":[5.4004727E3,5.234568E3,1.6590501E2,4.9980083E3,2.3655946E2,1.6457669E2,1.3283257E0,9.4548615E1,4.9034595E3,2.1333185E2,2.3227606E1,1.6161987E2,2.9568143E0],"tree_param":{"num_deleted":"0","num_feature":"5000","num_nodes":"13","size_leaf_vector":"1"}},{"base_weights":[-2.3938233E-3,-5.6632005E-2,7.16316E-1,-1.4666848E-1,3.737097E-1,7.5283974E-1,-1.2729857E0,-6.3567005E-2,1.19205795E-1,-2.3768194E-1,1.2858646E-1,2.3414311E-1,-3.543263E-1,1.2859283E-1,-5.148868E-1],"categories":[],"categories_nodes":[],"categories_segments":[],"categories_sizes":[],"default_left":[1,1,1,1,0,1,0,0,0,0,0,0,0,0,0],"id":11,"left_children":[1,3,5,7,9,11,13,-1,-1,-1,-1,-1,-1,-1,-1],"loss_changes":[2.090514E2,1.9326326E2,2.830011E1,1.4642679E2,5.5597305E1,2.0706085E1,6.133874E0,0E0,0E0,0E0,0E0,0E0,0E0,0E0,0E0],"parents":[2147483647,0,0,1,1,2,2,3,3,4,4,5,5,6,6],"right_children":[2,4,6,8,10,12,14,-1,-1,-1,-1,-1,-1,-1,-1],"split_conditions":[2.0661024E-2,2.587839E-2,3.940761E-2,6.501265E-2,3.9721486E-1,4.5745738E-2,6.812874E-2,-6.3567005E-2,1.19205795E-1,-2.3768194E-1,1.2858646E-1,2.3414311E-1,-3.543263E-1,1.2859283E-1,-5.148868E-1],"split_indices":[1574,2690,1649,1976,4466,1307,4405,0,0,0,0,0,0,0,0],"split_type":[0,0,0,0,0,0,0,0,0,0,0,0,0,0,0],"sum_hessian":[5.3607944E3,4.985481E3,3.7531332E2,4.123432E3,8.6204895E2,3.691571E2,6.1562057E0,3.6825498E3,4.4088242E2,3.8168148E1,8.2388086E2,3.6454395E2,4.613169E0,1.2791681E0,4.8770375E0],"tree_param":{"num_deleted":"0","num_feature":"5000","num_nodes":"15","size_leaf_vector":"1"}},{"base_weights":[-9.803049E-4,-1.1239622E0,3.0764796E-2,-1.2141163E0,3.9943874E-1,-8.076888E-1,7.380707E-2,1.0815428E-1,-3.778192E-1,-3.6246455E-1,2.5446472E-1,2.9698102E-2,-2.626463E-1,2.9862268E-2,-3.7143746E-1],"categories":[],"categories_nodes":[],"categories_segments":[],"categories_sizes":[],"default_left":[0,1,0,0,0,0,1,0,0,0,0,0,0,0,0],"id":12,"left_children":[1,3,5,7,9,11,13,-1,-1,-1,-1,-1,-1,-1,-1],"loss_changes":[1.8884999E2,2.0486572E1,1.8598457E2,1.0275345E1,7.4384003E0,1.5555603E1,1.6559312E2,0E0,0E0,0E0,0E0,0E0,0E0,0E0,0E0],"parents":[2147483647,0,0,1,1,2,2,3,3,4,4,5,5,6,6],"right_children":[2,4,6,8,10,12,14,-1,-1,-1,-1,-1,-1,-1,-1],"split_conditions":[1.4759301E0,4.3484233E-2,1.5516416E0,1.0552471E-1,9.890279E-2,9.056869E-2,4.112457E-2,1.0815428E-1,-3.778192E-1,-3.6246455E-1,2.5446472E-1,2.9698102E-2,-2.626463E-1,2.9862268E-2,-3.7143746E-1],"split_indices":[1413,2908,4301,1525,4630,2545,2531,0,0,0,0,0,0,0,0],"split_type":[0,0,0,0,0,0,0,0,0,0,0,0,0,0,0],"sum_hessian":[5.295488E3,1.4463469E2,5.1508535E3,1.367452E2,7.889492E0,2.5064189E2,4.9002114E3,3.6278021E0,1.331174E2,1.3524326E0,6.5370593E0,1.7406233E1,2.3323566E2,4.806848E3,9.336321E1],"tree_param":{"num_deleted":"0","num_feature":"5000","num_nodes":"15","size_leaf_vector":"1"}},{"base_weights":[-1.8368667E-3,2.4984505E-2,-1.2164446E0,8.6598635E-2,-5.1819366E-1,9.01977E-1,-1.2798294E0,-3.0570167E-1,3.5097405E-2,-1.6991496E-1,1.6325408E-1,3.8588133E-1,-2.0111045E-2,4.0313195E-2,-4.0721378E-1],"categories":[],"categories_nodes":[],"categories_segments":[],"categories_sizes":[],"default_left":[1,1,0,0,1,1,0,0,0,0,0,0,0,0,0],"id":13,"left_children":[1,3,5,7,9,11,13,-1,-1,-1,-1,-1,-1,-1,-1],"loss_changes":[1.7111165E2,1.7203557E2,1.6392044E1,1.552393E2,2.711876E1,1.5323403E0,1.2311752E1,0E0,0E0,0E0,0E0,0E0,0E0,0E0,0E0],"parents":[2147483647,0,0,1,1,2,2,3,3,4,4,5,5,6,6],"right_children":[2,4,6,8,10,12,14,-1,-1,-1,-1,-1,-1,-1,-1],"split_conditions":[3.7834227E-2,6.432904E-2,1.1482057E-1,3.5471442E-1,4.5969974E-2,7.6315805E-2,3.9164744E-2,-3.0570167E-1,3.5097405E-2,-1.6991496E-1,1.6325408E-1,3.8588133E-1,-2.0111045E-2,4.0313195E-2,-4.0721378E-1],"split_indices":[1649,380,2783,777,2619,1734,1739,0,0,0,0,0,0,0,0],"split_type":[0,0,0,0,0,0,0,0,0,0,0,0,0,0,0],"sum_hessian":[5.2505244E3,5.138044E3,1.1248055E2,4.615353E3,5.2269104E2,2.8833687E0,1.0959718E2,1.22609886E2,4.492743E3,5.0045706E2,2.2234001E1,1.8301578E0,1.053211E0,5.659382E0,1.03937805E2],"tree_param":{"num_deleted":"0","num_feature":"5000","num_nodes":"15","size_leaf_vector":"1"}},{"base_weights":[-2.2158602E-3,-4.3375377E-2,7.543608E-1,-1.014027E0,-1.1665027E-2,7.898958E-1,-1.2125442E0,-3.177745E-1,3.3820114E-1,3.2803628E-1,-1.1935062E-2,2.5004733E-1,-1.5198159E-1,7.5873725E-2,-5.2536917E-1],"categories":[],"categories_nodes":[],"categories_segments":[],"categories_sizes":[],"default_left":[1,0,1,1,0,1,0,0,0,0,0,0,0,0,0],"id":14,"left_children":[1,3,5,7,9,11,13,-1,-1,-1,-1,-1,-1,-1,-1],"loss_changes":[1.6166109E2,1.5153116E2,1.9678925E1,1.6275772E1,1.4822836E2,1.5327148E1,4.5066175E0,0E0,0E0,0E0,0E0,0E0,0E0,0E0,0E0],"parents":[2147483647,0,0,1,1,2,2,3,3,4,4,5,5,6,6],"right_children":[2,4,6,8,10,12,14,-1,-1,-1,-1,-1,-1,-1,-1],"split_conditions":[3.204732E-2,2.8104135E-1,2.8822497E-1,8.979998E-2,3.114188E-1,4.3379612E-2,1.1196966E-1,-3.177745E-1,3.3820114E-1,3.2803628E-1,-1.1935062E-2,2.5004733E-1,-1.5198159E-1,7.5873725E-2,-5.2536917E-1],"split_indices":[2691,3732,528,578,4351,4684,4844,0,0,0,0,0,0,0,0],"split_type":[0,0,0,0,0,0,0,0,0,0,0,0,0,0,0],"sum_hessian":[5.1893228E3,4.9224717E3,2.6685114E2,1.5474547E2,4.767726E3,2.6270343E2,4.147706E0,1.5204002E2,2.705439E0,1.17359314E2,4.6503667E3,2.5450279E2,8.200627E0,1.2574385E0,2.8902676E0],"tree_param":{"num_deleted":"0","num_feature":"5000","num_nodes":"15","size_leaf_vector":"1"}},{"base_weights":[-1.1706048E-3,4.1581884E-2,-6.959112E-1,6.779582E-2,-1.1363342E0,-7.343435E-1,1.2892021E0,3.6240764E-2,-1.4698036E-1,8.5922375E-2,-3.6115867E-1,-2.4944627E-1,-5.937842E-2,6.718321E-2,4.421945E-1],"categories":[],"categories_nodes":[],"categories_segments":[],"categories_sizes":[],"default_left":[1,1,1,1,0,1,0,0,0,0,0,0,0,0,0],"id":15,"left_children":[1,3,5,7,9,11,13,-1,-1,-1,-1,-1,-1,-1,-1],"loss_changes":[1.5321721E2,1.501274E2,2.3761078E1,1.4062279E2,1.0514084E1,1.5155426E1,8.5928345E-1,0E0,0E0,0E0,0E0,0E0,0E0,0E0,0E0],"parents":[2147483647,0,0,1,1,2,2,3,3,4,4,5,5,6,6],"right_children":[2,4,6,8,10,12,14,-1,-1,-1,-1,-1,-1,-1,-1],"split_conditions":[4.787055E-2,5.8737595E-2,7.4306466E-2,2.8974349E-2,5.3247944E-2,3.692925E-2,1.9905505E-1,3.6240764E-2,-1.4698036E-1,8.5922375E-2,-3.6115867E-1,-2.4944627E-1,-5.937842E-2,6.718321E-2,4.421945E-1],"split_indices":[2320,361,1690,3890,1341,4986,1976,0,0,0,0,0,0,0,0],"split_type":[0,0,0,0,0,0,0,0,0,0,0,0,0,0,0],"sum_hessian":[5.1565254E3,4.8584873E3,2.9803824E2,4.7536396E3,1.0484744E2,2.9299585E2,5.0424013E0,4.3417803E3,4.1185962E2,4.604039E0,1.0024341E2,2.476049E2,4.5390934E1,1.0723324E0,3.9700692E0],"tree_param":{"num_deleted":"0","num_feature":"5000","num_nodes":"15","size_leaf_vector":"1"}},{"base_weights":[-1.3160635E-3,6.0644996E-1,-4.8025575E-2,6.55468E-1,-6.102695E-1,-8.976934E-3,-7.628259E-1,2.0661809E-1,-2.661402E-1,3.39473E-1,-2.4660613E-1,6.2121004E-3,-2.9057288E-1,-2.466232E-1,1.04622886E-1],"categories":[],"categories_nodes":[],"categories_segments":[],"categories_sizes":[],"default_left":[0,1,1,1,0,1,1,0,0,0,0,0,0,0,0],"id":16,"left_children":[1,3,5,7,9,11,13,-1,-1,-1,-1,-1,-1,-1,-1],"loss_changes":[1.4554736E2,2.2223328E1,1.3288364E2,1.8681839E1,6.3478155E0,1.286412E2,1.6528656E1,0E0,0E0,0E0,0E0,0E0,0E0,0E0,0E0],"parents":[2147483647,0,0,1,1,2,2,3,3,4,4,5,5,6,6],"right_children":[2,4,6,8,10,12,14,-1,-1,-1,-1,-1,-1,-1,-1],"split_conditions":[1.0229266E0,5.5046465E-2,4.7379445E-2,4.4593688E-2,3.592775E-1,3.4294374E-2,7.8064755E-2,2.0661809E-1,-2.661402E-1,3.39473E-1,-2.4660613E-1,6.2121004E-3,-2.9057288E-1,-2.466232E-1,1.04622886E-1],"split_indices":[428,536,3337,3368,3575,255,2610,0,0,0,0,0,0,0,0],"split_type":[0,0,0,0,0,0,0,0,0,0,0,0,0,0,0],"sum_hessian":[5.124966E3,3.6491037E2,4.7600557E3,3.5122195E2,1.3688411E1,4.514449E3,2.4560611E2,3.4435117E2,6.8707757E0,1.0128537E0,1.2675557E1,4.37994E3,1.3450923E2,2.3342404E2,1.2182075E1],"tree_param":{"num_deleted":"0","num_feature":"5000","num_nodes":"15","size_leaf_vector":"1"}},{"base_weights":[-1.2603623E-3,2.2700151E-2,-1.1513605E0,3.5823688E-1,-5.755767E-2,1.9342309E-1,-1.2439773E0,1.2168236E-1,-2.4607854E-1,-6.3894293E-3,-2.4311161E-1,-3.154488E-1,2.1463731E-1,-3.8869414E-1,1.6655014E-1],"categories":[],"categories_nodes":[],"categories_segments":[],"categories_sizes":[],"default_left":[1,0,0,1,1,0,1,0,0,0,0,0,0,0,0],"id":17,"left_children":[1,3,5,7,9,11,13,-1,-1,-1,-1,-1,-1,-1,-1],"loss_changes":[1.4019995E2,1.3423317E2,1.3172546E1,5.404557E1,1.0978986E2,5.6625786E0,9.762024E0,0E0,0E0,0E0,0E0,0E0,0E0,0E0,0E0],"parents":[2147483647,0,0,1,1,2,2,3,3,4,4,5,5,6,6],"right_children":[2,4,6,8,10,12,14,-1,-1,-1,-1,-1,-1,-1,-1],"split_conditions":[3.73799E-2,8.936511E-1,7.103717E-2,4.5236483E-2,4.9034823E-2,4.2185653E-2,4.1447084E-2,1.2168236E-1,-2.4607854E-1,-6.3894293E-3,-2.4311161E-1,-3.154488E-1,2.1463731E-1,-3.8869414E-1,1.6655014E-1],"split_indices":[2839,461,2545,4958,4959,3583,4037,0,0,0,0,0,0,0,0],"split_type":[0,0,0,0,0,0,0,0,0,0,0,0,0,0,0],"sum_hessian":[5.085688E3,4.9828584E3,1.028297E2,9.611367E2,4.0217217E3,6.5555434E0,9.627415E1,9.246262E2,3.6510498E1,3.8378965E3,1.8382536E2,1.6371448E0,4.9183984E0,9.3858475E1,2.4156723E0],"tree_param":{"num_deleted":"0","num_feature":"5000","num_nodes":"15","size_leaf_vector":"1"}},{"base_weights":[-1.7446273E-3,-3.6310464E-2,7.7039796E-1,-6.949617E-2,7.70068E-1,8.853671E-1,-1.0865089E-1,-1.38045335E-2,-3.5899204E-1,2.474053E-1,-2.2461264E-1,2.182692E-1,4.4721675E-1,-1.1243966E-1,3.3451223E-1],"categories":[],"categories_nodes":[],"categories_segments":[],"categories_sizes":[],"default_left":[1,1,1,1,1,1,1,0,0,0,0,0,0,0,0],"id":18,"left_children":[1,3,5,7,9,11,13,-1,-1,-1,-1,-1,-1,-1,-1],"loss_changes":[1.3433441E2,1.2897023E2,2.1891747E1,1.2243121E2,1.6419785E1,1.7144562E1,8.831729E0,0E0,0E0,0E0,0E0,0E0,0E0,0E0,0E0],"parents":[2147483647,0,0,1,1,2,2,3,3,4,4,5,5,6,6],"right_children":[2,4,6,8,10,12,14,-1,-1,-1,-1,-1,-1,-1,-1],"split_conditions":[2.5115453E-2,4.0010132E-2,2.4828468E-2,4.1211218E-2,6.949174E-2,4.4356827E-2,5.8099467E-2,-1.38045335E-2,-3.5899204E-1,2.474053E-1,-2.2461264E-1,2.182692E-1,4.4721675E-1,-1.1243966E-1,3.3451223E-1],"split_indices":[2121,1690,4491,381,4301,3599,3597,0,0,0,0,0,0,0,0],"split_type":[0,0,0,0,0,0,0,0,0,0,0,0,0,0,0],"sum_hessian":[5.0311343E3,4.8164727E3,2.1466188E2,4.6269683E3,1.8950446E2,1.8982751E2,2.4834362E1,4.533564E3,9.340398E1,1.8336745E2,6.1370196E0,1.5232227E2,3.7505253E1,2.096769E1,3.8666728E0],"tree_param":{"num_deleted":"0","num_feature":"5000","num_nodes":"15","size_leaf_vector":"1"}},{"base_weights":[-7.735227E-4,-3.347637E-2,7.840777E-1,-1.4534644E-2,-1.3539215E0,8.6151946E-1,-2.7053195E-1,3.6231389E-3,-2.780344E-1,2.0031235E-1,-4.2130765E-1,2.683096E-1,-3.5454035E-1,1.9082615E-1,-1.8518025E-1],"categories":[],"categories_nodes":[],"categories_segments":[],"categories_sizes":[],"default_left":[1,1,1,1,0,1,0,0,0,0,0,0,0,0,0],"id":19,"left_children":[1,3,5,7,9,11,13,-1,-1,-1,-1,-1,-1,-1,-1],"loss_changes":[1.2845229E2,1.2014524E2,1.6582596E1,1.1501992E2,7.864525E0,1.3589401E1,4.93684E0,0E0,0E0,0E0,0E0,0E0,0E0,0E0,0E0],"parents":[2147483647,0,0,1,1,2,2,3,3,4,4,5,5,6,6],"right_children":[2,4,6,8,10,12,14,-1,-1,-1,-1,-1,-1,-1,-1],"split_conditions":[3.158644E-2,6.2575854E-2,3.43021E-2,7.880494E-2,1.5588868E-1,7.812098E-2,7.033912E-2,3.6231389E-3,-2.780344E-1,2.0031235E-1,-4.2130765E-1,2.683096E-1,-3.5454035E-1,1.9082615E-1,-1.8518025E-1],"split_indices":[578,3326,2025,4466,3234,2427,2690,0,0,0,0,0,0,0,0],"split_type":[0,0,0,0,0,0,0,0,0,0,0,0,0,0,0],"sum_hessian":[5.0025723E3,4.8033843E3,1.9918802E2,4.736451E3,6.693317E1,1.8573247E2,1.3455551E1,4.6031562E3,1.3329507E2,1.3313506E0,6.5601814E1,1.8334752E2,2.3849604E0,3.4915626E0,9.963988E0],"tree_param":{"num_deleted":"0","num_feature":"5000","num_nodes":"15","size_leaf_vector":"1"}},{"base_weights":[-1.0411787E-3,1.70513E-2,-1.2849215E0,5.0886545E-2,-6.947058E-1,2.6399067E-1,-1.3546743E0,2.1160727E-2,-3.6277547E-1,-2.2627136E-1,1.3923074E-1,5.574863E-2,-4.3851402E-1],"categories":[],"categories_nodes":[],"categories_segments":[],"categories_sizes":[],"default_left":[1,1,0,1,1,0,0,0,0,0,0,0,0],"id":20,"left_children":[1,3,5,7,9,-1,11,-1,-1,-1,-1,-1,-1],"loss_changes":[1.1544647E2,1.1806383E2,1.1621292E1,1.1595389E2,1.5697983E1,0E0,1.1369377E1,0E0,0E0,0E0,0E0,0E0,0E0],"parents":[2147483647,0,0,1,1,2,2,3,3,4,4,6,6],"right_children":[2,4,6,8,10,-1,12,-1,-1,-1,-1,-1,-1],"split_conditions":[6.485325E-2,3.6158666E-2,5.031569E-2,3.7837315E-2,5.105863E-2,2.6399067E-1,6.913753E-2,2.1160727E-2,-3.6277547E-1,-2.2627136E-1,1.3923074E-1,5.574863E-2,-4.3851402E-1],"split_indices":[1306,3111,112,3216,2122,0,2336,0,0,0,0,0,0],"split_type":[0,0,0,0,0,0,0,0,0,0,0,0,0],"sum_hessian":[4.968076E3,4.9000117E3,6.8064384E1,4.6785337E3,2.2147792E2,1.7620108E0,6.630237E1,4.6076313E3,7.090231E1,2.1098784E2,1.04900675E1,4.2597675E0,6.2042603E1],"tree_param":{"num_deleted":"0","num_feature":"5000","num_nodes":"13","size_leaf_vector":"1"}},{"base_weights":[-1.348406E-3,-3.315532E-2,7.1650475E-1,-5.8082093E-2,8.6983263E-1,-3.8012055E-1,7.442344E-1,-7.5442055E-3,-2.1783885E-1,2.787551E-1,-1.6569363E-1,-2.9492363E-1,2.3236449E-1],"categories":[],"categories_nodes":[],"categories_segments":[],"categories_sizes":[],"default_left":[1,1,0,1,1,0,0,0,0,0,0,0,0],"id":21,"left_children":[1,3,5,7,9,-1,11,-1,-1,-1,-1,-1,-1],"loss_changes":[1.1293576E2,1.0665856E2,1.248616E1,1.0141155E2,1.125766E1,0E0,1.1631584E1,0E0,0E0,0E0,0E0,0E0,0E0],"parents":[2147483647,0,0,1,1,2,2,3,3,4,4,6,6],"right_children":[2,4,6,8,10,-1,12,-1,-1,-1,-1,-1,-1],"split_conditions":[2.8307822E-2,3.5590217E-2,1.2382815E-1,3.024408E-2,7.042588E-2,-3.8012055E-1,6.6600025E-2,-7.5442055E-3,-2.1783885E-1,2.787551E-1,-1.6569363E-1,-2.9492363E-1,2.3236449E-1],"split_indices":[4540,1672,2548,4684,1924,0,944,0,0,0,0,0,0],"split_type":[0,0,0,0,0,0,0,0,0,0,0,0,0],"sum_hessian":[4.9441904E3,4.7353296E3,2.08861E2,4.6090337E3,1.2629562E2,2.2633624E0,2.0659763E2,4.393473E3,2.1556062E2,1.2156878E2,4.726847E0,3.021126E0,2.0357649E2],"tree_param":{"num_deleted":"0","num_feature":"5000","num_nodes":"13","size_leaf_vector":"1"}},{"base_weights":[-6.784169E-4,1.6451048E-2,-1.2810998E0,4.25675E-2,-8.4306103E-1,3.3265162E-1,-1.3454956E0,2.0396372E-2,-2.5348267E-1,3.8837805E-1,-2.6082072E-1,3.387014E-1,-4.2404643E-1],"categories":[],"categories_nodes":[],"categories_segments":[],"categories_sizes":[],"default_left":[1,1,0,1,0,0,0,0,0,0,0,0,0],"id":22,"left_children":[1,3,5,7,9,-1,11,-1,-1,-1,-1,-1,-1],"loss_changes":[1.0803349E2,1.09144714E2,1.1499435E1,1.065054E2,9.199295E0,0E0,1.2325081E1,0E0,0E0,0E0,0E0,0E0,0E0],"parents":[2147483647,0,0,1,1,2,2,3,3,4,4,6,6],"right_children":[2,4,6,8,10,-1,12,-1,-1,-1,-1,-1,-1],"split_conditions":[7.05511E-2,6.02791E-2,1.03866436E-1,5.4805793E-2,1.1157203E-1,3.3265162E-1,1.2136639E-1,2.0396372E-2,-2.5348267E-1,3.8837805E-1,-2.6082072E-1,3.387014E-1,-4.2404643E-1],"split_indices":[1307,370,4870,2179,3073,0,737,0,0,0,0,0,0],"split_type":[0,0,0,0,0,0,0,0,0,0,0,0,0],"sum_hessian":[4.9236685E3,4.8596436E3,6.402511E1,4.717259E3,1.4238441E2,1.2543131E0,6.277079E1,4.586805E3,1.304537E2,1.1471095E0,1.412373E2,1.2613301E0,6.150946E1],"tree_param":{"num_deleted":"0","num_feature":"5000","num_nodes":"13","size_leaf_vector":"1"}},{"base_weights":[-1.2964344E-3,-2.905753E-2,7.6066226E-1,-8.6142396E-4,-8.0697525E-1,8.187486E-1,-5.054507E-1,7.4793636E-3,-2.5656372E-1,-2.6005986E-1,1.5629154E-1,-2.8755715E-1,2.5623462E-1,-2.6820916E-1,2.5977853E-1],"categories":[],"categories_nodes":[],"categories_segments":[],"categories_sizes":[],"default_left":[1,1,1,1,1,0,1,0,0,0,0,0,0,0,0],"id":23,"left_children":[1,3,5,7,9,11,13,-1,-1,-1,-1,-1,-1,-1,-1],"loss_changes":[1.0335884E2,1.0340791E2,1.3046326E1,1.00297714E2,1.3566513E1,1.1165855E1,5.1187963E0,0E0,0E0,0E0,0E0,0E0,0E0,0E0,0E0],"parents":[2147483647,0,0,1,1,2,2,3,3,4,4,5,5,6,6],"right_children":[2,4,6,8,10,12,14,-1,-1,-1,-1,-1,-1,-1,-1],"split_conditions":[7.162074E-2,7.6097034E-2,5.762496E-2,8.8102825E-2,7.277676E-2,1.287879E-1,5.4305483E-2,7.4793636E-3,-2.5656372E-1,-2.6005986E-1,1.5629154E-1,-2.8755715E-1,2.5623462E-1,-2.6820916E-1,2.5977853E-1],"split_indices":[1512,536,1305,2910,1546,339,1976,0,0,0,0,0,0,0,0],"split_type":[0,0,0,0,0,0,0,0,0,0,0,0,0,0,0],"sum_hessian":[4.8842485E3,4.7134805E3,1.7076842E2,4.549579E3,1.6390118E2,1.6361546E2,7.1529555E0,4.417196E3,1.3238318E2,1.5716042E2,6.7407765E0,2.6830494E0,1.609324E2,5.844888E0,1.3080676E0],"tree_param":{"num_deleted":"0","num_feature":"5000","num_nodes":"15","size_leaf_vector":"1"}},{"base_weights":[-1.2824532E-3,-1.2559019E0,1.5339475E-2,2.818688E-1,-1.3324773E0,5.2723575E-2,-5.525732E-1,3.579577E-1,-2.387451E-1,-4.134622E-1,2.0249753E-1,-2.9367813E-1,2.1997374E-2,6.0198106E-2,-1.9374938E-1],"categories":[],"categories_nodes":[],"categories_segments":[],"categories_sizes":[],"default_left":[0,0,1,0,1,0,0,0,0,0,0,0,0,0,0],"id":24,"left_children":[1,3,5,7,9,11,13,-1,-1,-1,-1,-1,-1,-1,-1],"loss_changes":[1.0127795E2,7.853073E0,1.01790016E2,4.718435E0,6.4991913E0,9.56667E1,2.0930145E1,0E0,0E0,0E0,0E0,0E0,0E0,0E0,0E0],"parents":[2147483647,0,0,1,1,2,2,3,3,4,4,5,5,6,6],"right_children":[2,4,6,8,10,12,14,-1,-1,-1,-1,-1,-1,-1,-1],"split_conditions":[6.006176E-1,7.723114E-2,5.7727993E-2,6.0704518E-2,9.425681E-2,1.1428386E0,3.1378293E-1,3.579577E-1,-2.387451E-1,-4.134622E-1,2.0249753E-1,-2.9367813E-1,2.1997374E-2,6.0198106E-2,-1.9374938E-1],"split_indices":[2548,1194,2878,1734,3329,3338,3999,0,0,0,0,0,0,0,0],"split_type":[0,0,0,0,0,0,0,0,0,0,0,0,0,0,0],"sum_hessian":[4.854555E3,6.2500156E1,4.7920547E3,2.8374856E0,5.966267E1,4.496941E3,2.9511386E2,1.4793352E0,1.3581505E0,5.8640312E1,1.0223575E0,8.713046E1,4.4098105E3,3.2385845E1,2.6272803E2],"tree_param":{"num_deleted":"0","num_feature":"5000","num_nodes":"15","size_leaf_vector":"1"}},{"base_weights":[-1.7384306E-3,6.072424E-1,-3.4778535E-2,6.360601E-1,-3.887612E-1,-7.044664E-2,5.4091984E-1,2.1701965E-1,-2.63095E-2,-3.199749E-2,1.6185589E-1,1.713294E-1,-3.5888073E-1],"categories":[],"categories_nodes":[],"categories_segments":[],"categories_sizes":[],"default_left":[0,1,1,1,0,1,1,0,0,0,0,0,0],"id":25,"left_children":[1,3,5,7,-1,9,11,-1,-1,-1,-1,-1,-1],"loss_changes":[9.703644E1,1.4435753E1,9.397029E1,1.5560364E1,0E0,9.522236E1,1.4680489E1,0E0,0E0,0E0,0E0,0E0,0E0],"parents":[2147483647,0,0,1,1,2,2,3,3,5,5,6,6],"right_children":[2,4,6,8,-1,10,12,-1,-1,-1,-1,-1,-1],"split_conditions":[9.682026E-1,4.8173726E-2,3.9423417E-2,4.3445915E-2,-3.887612E-1,2.9966053E-2,7.80715E-2,2.1701965E-1,-2.63095E-2,-3.199749E-2,1.6185589E-1,1.713294E-1,-3.5888073E-1],"split_indices":[4934,4637,1574,465,0,1194,4840,0,0,0,0,0,0],"split_type":[0,0,0,0,0,0,0,0,0,0,0,0,0],"sum_hessian":[4.820645E3,2.4718884E2,4.573456E3,2.441575E2,3.0313518E0,4.30746E3,2.6599634E2,2.1786714E2,2.6290354E1,4.0668496E3,2.4061018E2,2.6211417E2,3.8821437E0],"tree_param":{"num_deleted":"0","num_feature":"5000","num_nodes":"13","size_leaf_vector":"1"}},{"base_weights":[-4.993725E-4,2.2484472E-2,-8.666351E-1,-8.785515E-3,6.5611196E-1,-9.25185E-1,8.4901714E-1,-7.847718E-3,3.5483515E-1,-9.811171E-2,2.1532464E-1,-3.0164936E-1,3.6276083E-2,-6.737697E-2,3.9838818E-1],"categories":[],"categories_nodes":[],"categories_segments":[],"categories_sizes":[],"default_left":[1,1,1,1,0,1,0,0,0,0,0,0,0,0,0],"id":26,"left_children":[1,3,5,7,9,11,13,-1,-1,-1,-1,-1,-1,-1,-1],"loss_changes":[9.5263855E1,9.237109E1,1.3211685E1,9.201885E1,1.3521126E1,1.0211838E1,2.6654916E0,0E0,0E0,0E0,0E0,0E0,0E0,0E0,0E0],"parents":[2147483647,0,0,1,1,2,2,3,3,4,4,5,5,6,6],"right_children":[2,4,6,8,10,12,14,-1,-1,-1,-1,-1,-1,-1,-1],"split_conditions":[2.9393958E-2,3.248256E-2,6.0657807E-2,4.4824652E-2,5.3061523E-2,4.773605E-2,5.5300776E-2,-7.847718E-3,3.5483515E-1,-9.811171E-2,2.1532464E-1,-3.0164936E-1,3.6276083E-2,-6.737697E-2,3.9838818E-1],"split_indices":[4699,3232,2083,1889,471,902,4842,0,0,0,0,0,0,0,0],"split_type":[0,0,0,0,0,0,0,0,0,0,0,0,0,0,0],"sum_hessian":[4.783435E3,4.6607314E3,1.227035E2,4.442478E3,2.1825346E2,1.19099724E2,3.60377E0,4.3796E3,6.287822E1,1.2621745E1,2.0563171E2,1.1064406E2,8.45567E0,1.2755498E0,2.3282201E0],"tree_param":{"num_deleted":"0","num_feature":"5000","num_nodes":"15","size_leaf_vector":"1"}},{"base_weights":[8.738547E-5,2.2323897E-2,-8.5895723E-1,4.0457282E-2,-1.0500476E0,3.181628E-1,-8.8742673E-1,-1.9506751E-1,2.0742811E-2,1.850833E-1,-3.3136967E-1,1.9303316E-1,-2.7561823E-1],"categories":[],"categories_nodes":[],"categories_segments":[],"categories_sizes":[],"default_left":[1,1,0,0,0,0,0,0,0,0,0,0,0],"id":27,"left_children":[1,3,5,7,9,-1,11,-1,-1,-1,-1,-1,-1],"loss_changes":[9.0956474E1,9.0298546E1,7.5067368E0,9.0493355E1,7.69899E0,0E0,6.290077E0,0E0,0E0,0E0,0E0,0E0,0E0],"parents":[2147483647,0,0,1,1,2,2,3,3,4,4,6,6],"right_children":[2,4,6,8,10,-1,12,-1,-1,-1,-1,-1,-1],"split_conditions":[5.7773847E-2,8.8219486E-2,1.2073824E-1,1.3071095E0,1.0822159E-1,3.181628E-1,1.3548443E-1,-1.9506751E-1,2.0742811E-2,1.850833E-1,-3.3136967E-1,1.9303316E-1,-2.7561823E-1],"split_indices":[4839,339,3120,4958,1725,0,593,0,0,0,0,0,0],"split_type":[0,0,0,0,0,0,0,0,0,0,0,0,0],"sum_hessian":[4.759578E3,4.640434E3,1.19144394E2,4.5642173E3,7.6216866E1,1.2114744E0,1.17932915E2,1.8113812E2,4.383079E3,2.0869777E0,7.412988E1,1.9711244E0,1.1596179E2],"tree_param":{"num_deleted":"0","num_feature":"5000","num_nodes":"13","size_leaf_vector":"1"}},{"base_weights":[-8.0372446E-4,-2.7286071E-2,6.694295E-1,1.14642024E-1,-1.5151556E-1,-5.671052E-1,7.166049E-1,-2.4380589E-1,4.2488728E-2,-5.804469E-2,1.5000746E-1,-2.713885E-1,1.891241E-1,2.2629456E-1,-2.349966E-1],"categories":[],"categories_nodes":[],"categories_segments":[],"categories_sizes":[],"default_left":[1,1,0,0,1,1,1,0,0,0,0,0,0,0,0],"id":28,"left_children":[1,3,5,7,9,11,13,-1,-1,-1,-1,-1,-1,-1,-1],"loss_changes":[8.381033E1,8.010691E1,1.0876175E1,5.318818E1,6.633914E1,3.4618604E0,1.0394676E1,0E0,0E0,0E0,0E0,0E0,0E0,0E0,0E0],"parents":[2147483647,0,0,1,1,2,2,3,3,4,4,5,5,6,6],"right_children":[2,4,6,8,10,12,14,-1,-1,-1,-1,-1,-1,-1,-1],"split_conditions":[4.224074E-2,2.9503483E-2,1.2165358E-1,1.4759301E0,9.362914E-2,5.616244E-2,5.6760956E-2,-2.4380589E-1,4.2488728E-2,-5.804469E-2,1.5000746E-1,-2.713885E-1,1.891241E-1,2.2629456E-1,-2.349966E-1],"split_indices":[218,2941,3111,1413,1976,2942,3087,0,0,0,0,0,0,0,0],"split_type":[0,0,0,0,0,0,0,0,0,0,0,0,0,0,0],"sum_hessian":[4.719853E3,4.5413726E3,1.7848006E2,2.1197292E3,2.4216436E3,6.1539836E0,1.7232607E2,5.9120453E1,2.0606086E3,2.2757612E3,1.4588232E2,4.9916563E0,1.1623275E0,1.685847E2,3.7413685E0],"tree_param":{"num_deleted":"0","num_feature":"5000","num_nodes":"15","size_leaf_vector":"1"}},{"base_weights":[-2.3307273E-4,3.0529262E-2,-5.703107E-1,-9.874825E-1,4.8943713E-2,8.635617E-1,-6.115706E-1,-3.142866E-1,3.6610538E-1,2.3548214E-2,-1.655172E-1,-2.913556E-1,3.9870936E-1,-1.9436097E-1,2.4914114E-1],"categories":[],"categories_nodes":[],"categories_segments":[],"categories_sizes":[],"default_left":[1,0,0,1,1,0,1,0,0,0,0,0,0,0,0],"id":29,"left_children":[1,3,5,7,9,11,13,-1,-1,-1,-1,-1,-1,-1,-1],"loss_changes":[8.217134E1,8.3388535E1,1.4720863E1,1.1772652E1,7.756955E1,7.375292E0,1.2774956E1,0E0,0E0,0E0,0E0,0E0,0E0,0E0,0E0],"parents":[2147483647,0,0,1,1,2,2,3,3,4,4,5,5,6,6],"right_children":[2,4,6,8,10,12,14,-1,-1,-1,-1,-1,-1,-1,-1],"split_conditions":[2.7841393E-2,2.9819268E-1,1.7015052E-1,7.078358E-2,2.6949776E-2,7.097142E-2,8.897019E-2,-3.142866E-1,3.6610538E-1,2.3548214E-2,-1.655172E-1,-2.913556E-1,3.9870936E-1,-1.9436097E-1,2.4914114E-1],"split_indices":[1032,4840,4692,2875,2006,4993,839,0,0,0,0,0,0,0,0],"split_type":[0,0,0,0,0,0,0,0,0,0,0,0,0,0,0],"sum_hessian":[4.6836274E3,4.444729E3,2.3889848E2,7.803563E1,4.3666934E3,6.124618E0,2.3277386E2,7.6477936E1,1.5576931E0,4.1627715E3,2.0392159E2,1.0195155E0,5.1051025E0,2.2759552E2,5.17835E0],"tree_param":{"num_deleted":"0","num_feature":"5000","num_nodes":"15","size_leaf_vector":"1"}},{"base_weights":[-4.9041596E-4,-2.5552971E-2,6.8324816E-1,2.1417866E-2,-3.8400945E-1,7.360514E-1,-1.0519266E0,1.0766732E-2,-3.8896188E-1,-1.2811768E-1,1.8721187E-1,2.3990656E-1,-1.7349339E-1,-3.8434103E-1,-2.8773261E-2],"categories":[],"categories_nodes":[],"categories_segments":[],"categories_sizes":[],"default_left":[1,1,1,1,1,1,1,0,0,0,0,0,0,0,0],"id":30,"left_children":[1,3,5,7,9,11,13,-1,-1,-1,-1,-1,-1,-1,-1],"loss_changes":[7.9892334E1,7.572955E1,1.5878357E1,7.590211E1,2.2879715E1,1.3892967E1,1.0341444E0,0E0,0E0,0E0,0E0,0E0,0E0,0E0,0E0],"parents":[2147483647,0,0,1,1,2,2,3,3,4,4,5,5,6,6],"right_children":[2,4,6,8,10,12,14,-1,-1,-1,-1,-1,-1,-1,-1],"split_conditions":[4.375369E-2,4.0029958E-2,4.994185E-2,6.707974E-2,8.190103E-2,7.320456E-2,3.8841378E-2,1.0766732E-2,-3.8896188E-1,-1.2811768E-1,1.8721187E-1,2.3990656E-1,-1.7349339E-1,-3.8434103E-1,-2.8773261E-2],"split_indices":[2122,4491,1178,2526,1862,4689,465,0,0,0,0,0,0,0,0],"split_type":[0,0,0,0,0,0,0,0,0,0,0,0,0,0,0],"sum_hessian":[4.660168E3,4.4963174E3,1.6385066E2,3.9762273E3,5.2009015E2,1.5957056E2,4.280097E0,3.9340044E3,4.2222797E1,4.9934174E2,2.0748396E1,1.5257495E2,6.9956083E0,3.17806E0,1.102037E0],"tree_param":{"num_deleted":"0","num_feature":"5000","num_nodes":"15","size_leaf_vector":"1"}},{"base_weights":[-4.8399682E-4,1.458205E-2,-1.1016686E0,2.8838437E-2,-1.1366674E0,-1.1725472E0,2.0588942E-1,3.5600935E-3,2.9454088E-1,-3.6028844E-1,3.475566E-1,-3.696427E-1,2.9064932E-1],"categories":[],"categories_nodes":[],"categories_segments":[],"categories_sizes":[],"default_left":[1,1,1,1,1,1,0,0,0,0,0,0,0],"id":31,"left_children":[1,3,5,7,9,11,-1,-1,-1,-1,-1,-1,-1],"loss_changes":[7.706806E1,7.524619E1,8.75032E0,7.321361E1,9.666817E0,8.937004E0,0E0,0E0,0E0,0E0,0E0,0E0,0E0],"parents":[2147483647,0,0,1,1,2,2,3,3,4,4,5,5],"right_children":[2,4,6,8,10,12,-1,-1,-1,-1,-1,-1,-1],"split_conditions":[4.6766292E-2,7.761522E-2,5.513169E-2,3.529334E-2,1.4148465E-1,8.011006E-2,2.0588942E-1,3.5600935E-3,2.9454088E-1,-3.6028844E-1,3.475566E-1,-3.696427E-1,2.9064932E-1],"split_indices":[1880,542,1745,429,1739,4087,0,0,0,0,0,0,0],"split_type":[0,0,0,0,0,0,0,0,0,0,0,0,0],"sum_hessian":[4.643345E3,4.5816475E3,6.1697845E1,4.5265684E3,5.5079372E1,5.9676357E1,2.021491E0,4.4483594E3,7.8208916E1,5.404226E1,1.0371134E0,5.847362E1,1.2027338E0],"tree_param":{"num_deleted":"0","num_feature":"5000","num_nodes":"13","size_leaf_vector":"1"}},{"base_weights":[-3.6752966E-4,2.0222431E-2,-7.8735995E-1,-2.8864397E-3,7.281117E-1,3.1510407E-1,-8.261628E-1,2.8522066E-3,-3.9205423E-1,2.3111449E-1,-2.1960117E-1,-2.6102248E-1,2.4923469E-1],"categories":[],"categories_nodes":[],"categories_segments":[],"categories_sizes":[],"default_left":[1,1,0,1,1,0,1,0,0,0,0,0,0],"id":32,"left_children":[1,3,5,7,9,-1,11,-1,-1,-1,-1,-1,-1],"loss_changes":[7.4976074E1,7.376298E1,9.279884E0,7.059525E1,9.361748E0,0E0,9.169418E0,0E0,0E0,0E0,0E0,0E0,0E0],"parents":[2147483647,0,0,1,1,2,2,3,3,4,4,6,6],"right_children":[2,4,6,8,10,-1,12,-1,-1,-1,-1,-1,-1],"split_conditions":[4.189872E-2,3.197835E-2,1.4251603E-1,4.8582967E-2,6.1263774E-2,3.1510407E-1,8.6108506E-2,2.8522066E-3,-3.9205423E-1,2.3111449E-1,-2.1960117E-1,-2.6102248E-1,2.4923469E-1],"split_indices":[4122,1511,2991,3605,1962,0,80,0,0,0,0,0,0],"split_type":[0,0,0,0,0,0,0,0,0,0,0,0,0],"sum_hessian":[4.624987E3,4.5080186E3,1.1696829E2,4.366472E3,1.4154648E2,1.8796413E0,1.15088646E2,4.326344E3,4.0128017E1,1.3802313E2,3.523348E0,1.1257997E2,2.50868E0],"tree_param":{"num_deleted":"0","num_feature":"5000","num_nodes":"13","size_leaf_vector":"1"}},{"base_weights":[-4.6956498E-4,1.95118E-2,-7.993077E-1,3.820372E-2,-8.4705913E-1,-8.4873265E-1,3.794213E-1,-1.4127676E-4,1.3545649E-1,1.9665532E-1,-2.7226806E-1,2.6451394E-1,-2.670724E-1],"categories":[],"categories_nodes":[],"categories_segments":[],"categories_sizes":[],"default_left":[1,1,1,1,0,0,0,0,0,0,0,0,0],"id":33,"left_children":[1,3,5,7,9,11,-1,-1,-1,-1,-1,-1,-1],"loss_changes":[7.360041E1,7.289871E1,1.2552292E1,7.040559E1,9.233604E0,8.721115E0,0E0,0E0,0E0,0E0,0E0,0E0,0E0],"parents":[2147483647,0,0,1,1,2,2,3,3,4,4,5,5],"right_children":[2,4,6,8,10,12,-1,-1,-1,-1,-1,-1,-1],"split_conditions":[6.532707E-2,3.1547233E-2,1.0079942E-1,2.4999205E-2,7.301287E-2,1.0509435E-1,3.794213E-1,-1.4127676E-4,1.3545649E-1,1.9665532E-1,-2.7226806E-1,2.6451394E-1,-2.670724E-1],"split_indices":[3848,1649,3736,3236,2199,2508,0,0,0,0,0,0,0],"split_type":[0,0,0,0,0,0,0,0,0,0,0,0,0],"sum_hessian":[4.609035E3,4.497514E3,1.11520905E2,4.403487E3,9.4027214E1,1.0948794E2,2.032963E0,4.027617E3,3.7587E2,3.2587802E0,9.076843E1,2.0906239E0,1.07397316E2],"tree_param":{"num_deleted":"0","num_feature":"5000","num_nodes":"13","size_leaf_vector":"1"}},{"base_weights":[-3.8432248E-4,3.4562446E-2,-4.3614614E-1,-2.7165873E-2,2.9827398E-1,-4.7826403E-1,8.645717E-1,1.0828715E-2,-8.884618E-2,1.1729462E-1,-2.5747836E-1,-1.736579E-1,-8.416436E-3,5.377185E-1,1.3750443E-1],"categories":[],"categories_nodes":[],"categories_segments":[],"categories_sizes":[],"default_left":[1,1,1,1,1,1,0,0,0,0,0,0,0,0,0],"id":34,"left_children":[1,3,5,7,9,11,13,-1,-1,-1,-1,-1,-1,-1,-1],"loss_changes":[6.99117E1,6.919205E1,1.90858E1,5.8629726E1,8.677793E1,1.4965027E1,3.3419313E0,0E0,0E0,0E0,0E0,0E0,0E0,0E0,0E0],"parents":[2147483647,0,0,1,1,2,2,3,3,4,4,5,5,6,6],"right_children":[2,4,6,8,10,12,14,-1,-1,-1,-1,-1,-1,-1,-1],"split_conditions":[2.7137453E-2,1.9419057E-2,1.00477375E-1,5.2400455E-2,6.244398E-2,2.7640969E-2,4.9241636E-2,1.0828715E-2,-8.884618E-2,1.1729462E-1,-2.5747836E-1,-1.736579E-1,-8.416436E-3,5.377185E-1,1.3750443E-1],"split_indices":[3583,3916,2690,2453,4959,2610,4842,0,0,0,0,0,0,0,0],"split_type":[0,0,0,0,0,0,0,0,0,0,0,0,0,0,0],"sum_hessian":[4.5888657E3,4.2490273E3,3.3983835E2,3.4438132E3,8.052141E2,3.2979184E2,1.0046516E1,2.788799E3,6.5501416E2,7.460709E2,5.9143227E1,2.6932712E2,6.0464703E1,2.0201397E0,8.026377E0],"tree_param":{"num_deleted":"0","num_feature":"5000","num_nodes":"15","size_leaf_vector":"1"}},{"base_weights":[-4.2778635E-4,1.2028629E-2,-1.1931589E0,2.875376E-2,-8.7709796E-1,-1.4046575E0,5.1599994E-2,1.3210911E-2,-2.787526E-1,3.931239E-1,-2.7956197E-1,-4.4701082E-1,1.528703E-1,2.6218686E-1,-1.8269192E-1],"categories":[],"categories_nodes":[],"categories_segments":[],"categories_sizes":[],"default_left":[1,1,1,1,0,1,0,0,0,0,0,0,0,0,0],"id":35,"left_children":[1,3,5,7,9,11,13,-1,-1,-1,-1,-1,-1,-1,-1],"loss_changes":[6.7735756E1,6.7122765E1,1.2477966E1,6.489031E1,1.1207016E1,7.3478546E0,4.7738657E0,0E0,0E0,0E0,0E0,0E0,0E0,0E0,0E0],"parents":[2147483647,0,0,1,1,2,2,3,3,4,4,5,5,6,6],"right_children":[2,4,6,8,10,12,14,-1,-1,-1,-1,-1,-1,-1,-1],"split_conditions":[7.635206E-2,4.112457E-2,5.5568103E-2,8.035039E-2,1.18331745E-1,1.18270166E-1,1.3815425E-1,1.3210911E-2,-2.787526E-1,3.931239E-1,-2.7956197E-1,-4.4701082E-1,1.528703E-1,2.6218686E-1,-1.8269192E-1],"split_indices":[2812,2531,2942,4856,1232,3999,2812,0,0,0,0,0,0,0,0],"split_type":[0,0,0,0,0,0,0,0,0,0,0,0,0,0,0],"sum_hessian":[4.557168E3,4.5110464E3,4.6121685E1,4.428707E3,8.233959E1,3.9313427E1,6.808256E0,4.3601006E3,6.8606155E1,1.4514368E0,8.088816E1,3.784697E1,1.4664575E0,2.8888547E0,3.9194012E0],"tree_param":{"num_deleted":"0","num_feature":"5000","num_nodes":"15","size_leaf_vector":"1"}},{"base_weights":[-8.022482E-4,1.1298828E0,-1.3663164E-2,1.1934434E0,-2.4923934E-1,-2.627948E-3,-1.3592424E0,3.7927926E-1,-2.0256451E-1,-1.1123995E-2,1.2348731E-1,-1.4202212E-1,-4.6311113E-1],"categories":[],"categories_nodes":[],"categories_segments":[],"categories_sizes":[],"default_left":[0,1,1,1,0,1,0,0,0,0,0,0,0],"id":36,"left_children":[1,3,5,7,-1,9,11,-1,-1,-1,-1,-1,-1],"loss_changes":[6.605062E1,7.3576584E0,6.6682556E1,7.4560776E0,0E0,6.3603348E1,5.2382507E0,0E0,0E0,0E0,0E0,0E0,0E0],"parents":[2147483647,0,0,1,1,2,2,3,3,5,5,6,6],"right_children":[2,4,6,8,-1,10,12,-1,-1,-1,-1,-1,-1],"split_conditions":[5.863395E-1,6.718296E-2,5.257482E-2,4.595392E-2,-2.4923934E-1,4.3568827E-2,6.1547056E-2,3.7927926E-1,-2.0256451E-1,-1.1123995E-2,1.2348731E-1,-1.4202212E-1,-4.6311113E-1],"split_indices":[4935,2574,4447,3942,0,1862,2643,0,0,0,0,0,0],"split_type":[0,0,0,0,0,0,0,0,0,0,0,0,0],"sum_hessian":[4.5401084E3,5.0083626E1,4.4900244E3,4.8890038E1,1.1935879E0,4.4544946E3,3.552976E1,4.741643E1,1.473609E0,4.113314E3,3.4118066E2,6.73807E0,2.8791687E1],"tree_param":{"num_deleted":"0","num_feature":"5000","num_nodes":"13","size_leaf_vector":"1"}},{"base_weights":[-4.892541E-4,1.9217663E-2,-7.3844475E-1,-2.935038E-2,3.098267E-1,-7.711447E-1,4.209229E-1,-2.3944904E-1,-2.8028393E-3,6.955319E-2,3.6359155E-1,1.3576372E-1,-2.4739556E-1],"categories":[],"categories_nodes":[],"categories_segments":[],"categories_sizes":[],"default_left":[1,1,1,0,1,0,0,0,0,0,0,0,0],"id":37,"left_children":[1,3,5,7,9,11,-1,-1,-1,-1,-1,-1,-1],"loss_changes":[6.588532E1,6.229021E1,9.333839E0,5.8162605E1,4.417754E1,8.014946E0,0E0,0E0,0E0,0E0,0E0,0E0,0E0],"parents":[2147483647,0,0,1,1,2,2,3,3,4,4,5,5],"right_children":[2,4,6,8,10,12,-1,-1,-1,-1,-1,-1,-1],"split_conditions":[3.37899E-2,2.0206444E-2,5.161694E-2,3.5471442E-1,6.1334923E-2,8.577396E-2,4.209229E-1,-2.3944904E-1,-2.8028393E-3,6.955319E-2,3.6359155E-1,1.3576372E-1,-2.4739556E-1],"split_indices":[1055,4986,3167,777,1419,839,0,0,0,0,0,0,0],"split_type":[0,0,0,0,0,0,0,0,0,0,0,0,0],"sum_hessian":[4.5284585E3,4.411621E3,1.1683728E2,3.7806748E3,6.3094635E2,1.1571035E2,1.1269301E0,9.490625E1,3.6857686E3,5.8190283E2,4.904355E1,4.5351586E0,1.1117519E2],"tree_param":{"num_deleted":"0","num_feature":"5000","num_nodes":"13","size_leaf_vector":"1"}},{"base_weights":[-4.1642657E-4,-6.812491E-1,1.992067E-2,-8.224299E-1,2.3567516E-1,-1.580321E-2,4.153316E-1,-2.6345587E-1,2.0680764E-1,-1.3843426E-1,1.879496E-1,6.0434705E-3,-1.2526639E-1,-3.0760783E-1,1.3354042E-1],"categories":[],"categories_nodes":[],"categories_segments":[],"categories_sizes":[],"default_left":[0,1,1,1,0,1,0,0,0,0,0,0,0,0,0],"id":38,"left_children":[1,3,5,7,9,11,13,-1,-1,-1,-1,-1,-1,-1,-1],"loss_changes":[6.238903E1,1.7112E1,6.1808975E1,1.0170456E1,5.251824E0,5.7974144E1,1.6023968E1,0E0,0E0,0E0,0E0,0E0,0E0,0E0,0E0],"parents":[2147483647,0,0,1,1,2,2,3,3,4,4,5,5,6,6],"right_children":[2,4,6,8,10,12,14,-1,-1,-1,-1,-1,-1,-1,-1],"split_conditions":[1.0593619E0,4.50489E-2,3.26082E-2,9.385719E-2,9.113629E-2,2.8974349E-2,4.730892E-1,-2.6345587E-1,2.0680764E-1,-1.3843426E-1,1.879496E-1,6.0434705E-3,-1.2526639E-1,-3.0760783E-1,1.3354042E-1],"split_indices":[255,1341,1546,481,2941,3890,1414,0,0,0,0,0,0,0,0],"split_type":[0,0,0,0,0,0,0,0,0,0,0,0,0,0,0],"sum_hessian":[4.5038926E3,1.2969069E2,4.3742017E3,1.12475624E2,1.721506E1,4.0126355E3,3.6156638E2,1.0887916E2,3.5964715E0,6.11926E0,1.10957985E1,3.683951E3,3.2868454E2,6.6509976E0,3.5491537E2],"tree_param":{"num_deleted":"0","num_feature":"5000","num_nodes":"15","size_leaf_vector":"1"}},{"base_weights":[-5.253078E-4,2.0269651E-2,-6.595411E-1,2.355902E-3,8.104799E-1,-7.686629E-1,4.5015725E-1,-1.5081913E-2,7.924465E-2,2.6894885E-1,-3.795104E-2,-2.468937E-1,2.7012977E-1,-2.3604171E-1,1.9744472E-1],"categories":[],"categories_nodes":[],"categories_segments":[],"categories_sizes":[],"default_left":[1,1,1,1,1,1,0,0,0,0,0,0,0,0,0],"id":39,"left_children":[1,3,5,7,9,11,13,-1,-1,-1,-1,-1,-1,-1,-1],"loss_changes":[6.1462498E1,6.15435E1,1.6958817E1,5.86023E1,7.8807945E0,1.2098541E1,3.8401937E0,0E0,0E0,0E0,0E0,0E0,0E0,0E0,0E0],"parents":[2147483647,0,0,1,1,2,2,3,3,4,4,5,5,6,6],"right_children":[2,4,6,8,10,12,14,-1,-1,-1,-1,-1,-1,-1,-1],"split_conditions":[3.409142E-2,3.4988634E-2,7.835762E-2,2.7640969E-2,3.43021E-2,4.1135572E-2,8.230968E-2,-1.5081913E-2,7.924465E-2,2.6894885E-1,-3.795104E-2,-2.468937E-1,2.7012977E-1,-2.3604171E-1,1.9744472E-1],"split_indices":[4030,3234,1862,2610,2025,4109,3884,0,0,0,0,0,0,0,0],"split_type":[0,0,0,0,0,0,0,0,0,0,0,0,0,0,0],"sum_hessian":[4.482961E3,4.34677E3,1.3619121E2,4.2513955E3,9.537445E1,1.2427772E2,1.1913488E1,3.540456E3,7.109395E2,8.739471E1,7.9797416E0,1.2085187E2,3.4258547E0,1.3142933E0,1.0599195E1],"tree_param":{"num_deleted":"0","num_feature":"5000","num_nodes":"15","size_leaf_vector":"1"}},{"base_weights":[-1.1523026E-4,2.3225902E-2,-5.563092E-1,3.5620615E-2,-1.0868212E0,-6.3713336E-1,5.037016E-1,4.2882184E-3,2.0179395E-1,-3.4565473E-1,1.3700205E-1,1.4137383E-1,-2.1083795E-1,3.164951E-1,-1.1514716E-1],"categories":[],"categories_nodes":[],"categories_segments":[],"categories_sizes":[],"default_left":[1,1,1,1,1,0,0,0,0,0,0,0,0,0,0],"id":40,"left_children":[1,3,5,7,9,11,13,-1,-1,-1,-1,-1,-1,-1,-1],"loss_changes":[5.8019905E1,5.905253E1,1.5742271E1,5.763122E1,5.3076744E0,1.2534874E1,6.917593E0,0E0,0E0,0E0,0E0,0E0,0E0,0E0,0E0],"parents":[2147483647,0,0,1,1,2,2,3,3,4,4,5,5,6,6],"right_children":[2,4,6,8,10,12,14,-1,-1,-1,-1,-1,-1,-1,-1],"split_conditions":[4.5338977E-2,6.875941E-2,4.807126E-2,4.1764848E-2,8.5466646E-2,9.252127E-2,2.0543317E-1,4.2882184E-3,2.0179395E-1,-3.4565473E-1,1.3700205E-1,1.4137383E-1,-2.1083795E-1,3.164951E-1,-1.1514716E-1],"split_indices":[4362,3326,2416,4037,4824,436,1948,0,0,0,0,0,0,0,0],"split_type":[0,0,0,0,0,0,0,0,0,0,0,0,0,0,0],"sum_hessian":[4.4671943E3,4.2881953E3,1.7899934E2,4.2417993E3,4.639575E1,1.6668855E2,1.2310797E1,4.1053804E3,1.3641881E2,4.4754105E1,1.6416444E0,8.976823E0,1.5771173E2,7.4775033E0,4.833294E0],"tree_param":{"num_deleted":"0","num_feature":"5000","num_nodes":"15","size_leaf_vector":"1"}},{"base_weights":[-3.6589778E-4,2.133423E-2,-5.997997E-1,4.302631E-3,8.160177E-1,-6.4268327E-1,1.264465E0,6.0779504E-3,-2.557397E-1,-1.9605683E-1,2.6573956E-1,-2.0500036E-1,3.293452E-1,1.0395391E-1,4.4947383E-1],"categories":[],"categories_nodes":[],"categories_segments":[],"categories_sizes":[],"default_left":[1,1,1,1,0,1,0,0,0,0,0,0,0,0,0],"id":41,"left_children":[1,3,5,7,9,11,13,-1,-1,-1,-1,-1,-1,-1,-1],"loss_changes":[5.787033E1,5.8107674E1,1.3238579E1,5.7498314E1,9.816376E0,1.1546867E1,3.0316305E-1,0E0,0E0,0E0,0E0,0E0,0E0,0E0,0E0],"parents":[2147483647,0,0,1,1,2,2,3,3,4,4,5,5,6,6],"right_children":[2,4,6,8,10,12,14,-1,-1,-1,-1,-1,-1,-1,-1],"split_conditions":[7.055811E-2,4.3525476E-2,5.596389E-2,3.73799E-2,2.073543E-1,6.134699E-2,1.3476656E-1,6.0779504E-3,-2.557397E-1,-1.9605683E-1,2.6573956E-1,-2.0500036E-1,3.293452E-1,1.0395391E-1,4.4947383E-1],"split_indices":[3337,4351,2280,2839,2669,1978,1734,0,0,0,0,0,0,0,0],"split_type":[0,0,0,0,0,0,0,0,0,0,0,0,0,0,0],"sum_hessian":[4.446915E3,4.292487E3,1.544281E2,4.2034053E3,8.9081665E1,1.5159619E2,2.8319001E0,4.1275073E3,7.589795E1,3.6590452E0,8.5422615E1,1.4872984E2,2.8663456E0,1.0786691E0,1.753231E0],"tree_param":{"num_deleted":"0","num_feature":"5000","num_nodes":"15","size_leaf_vector":"1"}},{"base_weights":[-2.1680522E-4,-2.0595256E-2,6.306783E-1,7.5906026E-1,-3.7876815E-2,1.0789509E0,3.878494E-1,2.5595853E-1,-1.4038123E-1,-1.569644E-2,2.6055646E-1,-2.7809367E-1,3.440438E-1,3.48993E-1,1.7844139E-2],"categories":[],"categories_nodes":[],"categories_segments":[],"categories_sizes":[],"default_left":[1,0,0,1,1,0,0,0,0,0,0,0,0,0,0],"id":42,"left_children":[1,3,5,7,9,11,13,-1,-1,-1,-1,-1,-1,-1,-1],"loss_changes":[5.6867683E1,5.7760593E1,1.4647163E1,1.113678E1,5.4940502E1,7.6064568E0,2.318786E1,0E0,0E0,0E0,0E0,0E0,0E0,0E0,0E0],"parents":[2147483647,0,0,1,1,2,2,3,3,4,4,5,5,6,6],"right_children":[2,4,6,8,10,12,14,-1,-1,-1,-1,-1,-1,-1,-1],"split_conditions":[5.8666293E-2,3.145108E-1,2.4872282E-1,4.2911846E-2,3.592466E-2,1.1676538E-1,2.4834053E-1,2.5595853E-1,-1.4038123E-1,-1.569644E-2,2.6055646E-1,-2.7809367E-1,3.440438E-1,3.48993E-1,1.7844139E-2],"split_indices":[2121,3373,3597,2671,3547,3213,3599,0,0,0,0,0,0,0,0],"split_type":[0,0,0,0,0,0,0,0,0,0,0,0,0,0,0],"sum_hessian":[4.4211953E3,4.2837925E3,1.374028E2,9.196313E1,4.1918296E3,4.706871E1,9.03341E1,8.5693405E1,6.2697177E0,4.1270024E3,6.4826935E1,1.1259772E0,4.5942734E1,2.6116325E1,6.421777E1],"tree_param":{"num_deleted":"0","num_feature":"5000","num_nodes":"15","size_leaf_vector":"1"}},{"base_weights":[7.190959E-4,1.5773147E-2,-8.3971226E-1,2.6608009E-2,-1.1442766E0,-9.2502946E-1,5.8943075E-1,1.2181682E-2,-2.5924268E-1,1.4888853E-1,-3.7903664E-1,2.6231447E-1,-2.9595527E-1,-1.7737938E-1,3.6884284E-1],"categories":[],"categories_nodes":[],"categories_segments":[],"categories_sizes":[],"default_left":[1,1,1,1,0,0,1,0,0,0,0,0,0,0,0],"id":43,"left_children":[1,3,5,7,9,11,13,-1,-1,-1,-1,-1,-1,-1,-1],"loss_changes":[5.574996E1,5.4439846E1,9.999821E0,5.3521664E1,8.46357E0,9.001633E0,4.4896135E0,0E0,0E0,0E0,0E0,0E0,0E0,0E0,0E0],"parents":[2147483647,0,0,1,1,2,2,3,3,4,4,5,5,6,6],"right_children":[2,4,6,8,10,12,14,-1,-1,-1,-1,-1,-1,-1,-1],"split_conditions":[4.1211218E-2,8.618086E-2,3.9530687E-2,3.4113746E-2,5.5053093E-2,6.3081004E-2,1.4672093E-1,1.2181682E-2,-2.5924268E-1,1.4888853E-1,-3.7903664E-1,2.6231447E-1,-2.9595527E-1,-1.7737938E-1,3.6884284E-1],"split_indices":[381,3216,1686,1306,380,1194,553,0,0,0,0,0,0,0,0],"split_type":[0,0,0,0,0,0,0,0,0,0,0,0,0,0,0],"sum_hessian":[4.4044043E3,4.327864E3,7.6540726E1,4.2887837E3,3.9080162E1,7.256166E1,3.9790597E0,4.22337E3,6.541327E1,2.4323955E0,3.6647766E1,1.9607643E0,7.06009E1,1.4255514E0,2.5535085E0],"tree_param":{"num_deleted":"0","num_feature":"5000","num_nodes":"15","size_leaf_vector":"1"}},{"base_weights":[-1.1274414E-4,1.274474E-2,-9.8030674E-1,2.3053074E-2,-1.1902338E0,2.1169896E-1,-1.0314769E0,1.8180188E-2,-9.204961E-2,1.6435422E-1,-3.9407018E-1,-3.2646164E-1,1.3954684E-1],"categories":[],"categories_nodes":[],"categories_segments":[],"categories_sizes":[],"default_left":[1,1,0,1,0,0,1,0,0,0,0,0,0],"id":44,"left_children":[1,3,5,7,9,-1,11,-1,-1,-1,-1,-1,-1],"loss_changes":[5.528738E1,5.372389E1,5.6280174E0,5.3209457E1,8.610039E0,0E0,5.2209816E0,0E0,0E0,0E0,0E0,0E0,0E0],"parents":[2147483647,0,0,1,1,2,2,3,3,4,4,6,6],"right_children":[2,4,6,8,10,-1,12,-1,-1,-1,-1,-1,-1],"split_conditions":[9.245193E-2,5.2917086E-2,1.168926E-1,5.981281E-2,1.2727612E-1,2.1169896E-1,1.0440941E-1,1.8180188E-2,-9.204961E-2,1.6435422E-1,-3.9407018E-1,-3.2646164E-1,1.3954684E-1],"split_indices":[361,493,3072,2734,4372,0,3852,0,0,0,0,0,0],"split_type":[0,0,0,0,0,0,0,0,0,0,0,0,0],"sum_hessian":[4.3849116E3,4.3291123E3,5.5799202E1,4.2933037E3,3.580853E1,1.2668859E0,5.4532314E1,3.8553086E3,4.379952E2,2.1445382E0,3.366399E1,5.2803734E1,1.7285833E0],"tree_param":{"num_deleted":"0","num_feature":"5000","num_nodes":"13","size_leaf_vector":"1"}},{"base_weights":[-4.985276E-4,1.27053885E-2,-9.2019695E-1,-4.3358527E-2,2.3311782E-1,3.173371E-1,-9.802765E-1,1.763103E-1,-2.0174127E-2,7.495641E-2,-4.3987393E-1,-3.1893152E-1,1.5000436E-1],"categories":[],"categories_nodes":[],"categories_segments":[],"categories_sizes":[],"default_left":[1,1,0,0,1,0,1,0,0,0,0,0,0],"id":45,"left_children":[1,3,5,7,9,-1,11,-1,-1,-1,-1,-1,-1],"loss_changes":[5.3068283E1,5.3247818E1,8.387199E0,5.182939E1,2.5218494E1,0E0,7.95533E0,0E0,0E0,0E0,0E0,0E0,0E0],"parents":[2147483647,0,0,1,1,2,2,3,3,4,4,6,6],"right_children":[2,4,6,8,10,-1,12,-1,-1,-1,-1,-1,-1],"split_conditions":[4.998177E-2,3.5072815E-2,2.1824816E-1,8.866848E-1,9.560583E-2,3.173371E-1,4.6612367E-2,1.763103E-1,-2.0174127E-2,7.495641E-2,-4.3987393E-1,-3.1893152E-1,1.5000436E-1],"split_indices":[1307,1976,4443,4279,1802,0,2158,0,0,0,0,0,0],"split_type":[0,0,0,0,0,0,0,0,0,0,0,0,0],"sum_hessian":[4.3680913E3,4.3072393E3,6.0851944E1,3.4344573E3,8.727823E2,1.3042979E0,5.9547646E1,1.24407455E2,3.3100498E3,8.651148E2,7.667457E0,5.6659153E1,2.8884912E0],"tree_param":{"num_deleted":"0","num_feature":"5000","num_nodes":"13","size_leaf_vector":"1"}},{"base_weights":[-2.2043134E-4,-3.873638E-1,3.058476E-2,3.2173833E-1,-4.4550133E-1,9.709876E-3,6.395074E-1,1.3330847E-1,-3.7020582E-1,-3.5044125E-1,-1.12347476E-1,6.446249E-3,-3.260107E-1,2.072649E-1,-2.4404247E-1],"categories":[],"categories_nodes":[],"categories_segments":[],"categories_sizes":[],"default_left":[0,0,1,1,0,1,1,0,0,0,0,0,0,0,0],"id":46,"left_children":[1,3,5,7,9,11,13,-1,-1,-1,-1,-1,-1,-1,-1],"loss_changes":[5.182565E1,1.3347637E1,5.1160194E1,5.289221E0,1.4774319E1,5.0292854E1,1.0520393E1,0E0,0E0,0E0,0E0,0E0,0E0,0E0,0E0],"parents":[2147483647,0,0,1,1,2,2,3,3,4,4,5,5,6,6],"right_children":[2,4,6,8,10,12,14,-1,-1,-1,-1,-1,-1,-1,-1],"split_conditions":[1.0291126E0,1.965482E-1,4.748726E-2,4.3516226E-2,9.379514E-2,3.336406E-2,9.262071E-2,1.3330847E-1,-3.7020582E-1,-3.5044125E-1,-1.12347476E-1,6.446249E-3,-3.260107E-1,2.072649E-1,-2.4404247E-1],"split_indices":[2320,4952,578,4013,2224,4886,2597,0,0,0,0,0,0,0,0],"split_type":[0,0,0,0,0,0,0,0,0,0,0,0,0,0,0],"sum_hessian":[4.343599E3,3.192949E2,4.0243042E3,2.3850977E1,2.954439E2,3.8918994E3,1.3240485E2,2.2770597E1,1.0803787E0,2.5051817E1,2.703921E2,3.8515068E3,4.039234E1,1.2838966E2,4.0151834E0],"tree_param":{"num_deleted":"0","num_feature":"5000","num_nodes":"15","size_leaf_vector":"1"}},{"base_weights":[-4.0138263E-4,-2.453155E-2,4.8325768E-1,-7.254131E-2,2.3919035E-1,5.8100003E-1,-3.304423E-1,2.7138028E-1,-2.6049754E-2,8.579478E-2,-1.7525956E-1,1.805448E-1,-4.6405056E-1,-3.366481E-1,1.2540498E-2],"categories":[],"categories_nodes":[],"categories_segments":[],"categories_sizes":[],"default_left":[1,1,1,0,1,1,0,0,0,0,0,0,0,0,0],"id":47,"left_children":[1,3,5,7,9,11,13,-1,-1,-1,-1,-1,-1,-1,-1],"loss_changes":[5.0498928E1,5.2198357E1,1.6545334E1,4.877797E1,2.4630825E1,9.077663E0,6.733245E0,0E0,0E0,0E0,0E0,0E0,0E0,0E0,0E0],"parents":[2147483647,0,0,1,1,2,2,3,3,4,4,5,5,6,6],"right_children":[2,4,6,8,10,12,14,-1,-1,-1,-1,-1,-1,-1,-1],"split_conditions":[3.3902463E-2,3.7634812E-2,4.267507E-2,2.7067614E-1,3.3906292E-2,5.478128E-2,1.5976015E-1,2.7138028E-1,-2.6049754E-2,8.579478E-2,-1.7525956E-1,1.805448E-1,-4.6405056E-1,-3.366481E-1,1.2540498E-2],"split_indices":[2691,461,3141,4315,1263,1687,2734,0,0,0,0,0,0,0,0],"split_type":[0,0,0,0,0,0,0,0,0,0,0,0,0,0,0],"sum_hessian":[4.3249404E3,4.120323E3,2.046172E2,3.486366E3,6.339572E2,1.8292952E2,2.1687675E1,4.9356834E1,3.437009E3,6.0048505E2,3.347218E1,1.8186754E2,1.0619782E0,6.2916064E0,1.53960705E1],"tree_param":{"num_deleted":"0","num_feature":"5000","num_nodes":"15","size_leaf_vector":"1"}},{"base_weights":[6.5126944E-5,2.0361437E-2,-5.680962E-1,-6.1767495E-1,3.905102E-2,-6.46034E-1,6.781434E-1,-2.1069045E-1,2.2766148E-1,2.418633E-2,-7.890649E-2,-2.1964438E-1,7.8428075E-2,2.6759234E-1,-6.846876E-2],"categories":[],"categories_nodes":[],"categories_segments":[],"categories_sizes":[],"default_left":[1,0,1,1,1,1,1,0,0,0,0,0,0,0,0],"id":48,"left_children":[1,3,5,7,9,11,13,-1,-1,-1,-1,-1,-1,-1,-1],"loss_changes":[4.9635582E1,4.9581177E1,1.4857784E1,1.4317474E1,5.0733707E1,1.1149918E1,1.9916301E0,0E0,0E0,0E0,0E0,0E0,0E0,0E0,0E0],"parents":[2147483647,0,0,1,1,2,2,3,3,4,4,5,5,6,6],"right_children":[2,4,6,8,10,12,14,-1,-1,-1,-1,-1,-1,-1,-1],"split_conditions":[5.7719614E-2,2.8104135E-1,7.608775E-2,5.2665647E-2,5.126175E-2,3.1933896E-2,4.7185563E-2,-2.1069045E-1,2.2766148E-1,2.418633E-2,-7.890649E-2,-2.1964438E-1,7.8428075E-2,2.6759234E-1,-6.846876E-2],"split_indices":[4684,3732,4993,1862,465,1419,3318,0,0,0,0,0,0,0,0],"split_type":[0,0,0,0,0,0,0,0,0,0,0,0,0,0,0],"sum_hessian":[4.3023145E3,4.154856E3,1.474589E2,1.173298E2,4.037526E3,1.392331E2,8.225795E0,1.1099587E2,6.3339305E0,3.5497554E3,4.8777054E2,1.27342094E2,1.1890998E1,6.6684604E0,1.5573344E0],"tree_param":{"num_deleted":"0","num_feature":"5000","num_nodes":"15","size_leaf_vector":"1"}},{"base_weights":[-1.6435827E-4,1.636713E-2,-6.724714E-1,-1.0091118E0,2.7922647E-2,1.0752704E0,-7.2167045E-1,2.2260047E-1,-3.229096E-1,3.887618E-3,2.4460079E-1,6.1820854E-2,4.3108028E-1,-2.3381852E-1,1.8917821E-1],"categories":[],"categories_nodes":[],"categories_segments":[],"categories_sizes":[],"default_left":[1,0,0,0,1,1,1,0,0,0,0,0,0,0,0],"id":49,"left_children":[1,3,5,7,9,11,13,-1,-1,-1,-1,-1,-1,-1,-1],"loss_changes":[4.76349E1,4.9597496E1,9.620502E0,6.2911987E0,4.8740124E1,7.1543694E-1,8.347382E0,0E0,0E0,0E0,0E0,0E0,0E0,0E0,0E0],"parents":[2147483647,0,0,1,1,2,2,3,3,4,4,5,5,6,6],"right_children":[2,4,6,8,10,12,14,-1,-1,-1,-1,-1,-1,-1,-1],"split_conditions":[6.371964E-2,6.006176E-1,1.8210585E-1,1.2572993E-1,6.925768E-2,3.1626206E-2,6.905342E-2,2.2260047E-1,-3.229096E-1,3.887618E-3,2.4460079E-1,6.1820854E-2,4.3108028E-1,-2.3381852E-1,1.8917821E-1],"split_indices":[407,2548,2551,1511,1978,2453,4487,0,0,0,0,0,0,0,0],"split_type":[0,0,0,0,0,0,0,0,0,0,0,0,0,0,0],"sum_hessian":[4.283945E3,4.1820864E3,1.0185848E2,4.5638428E1,4.136448E3,2.217807E0,9.964068E1,1.3168931E0,4.4321533E1,4.060303E3,7.614513E1,1.1129038E0,1.1049032E0,9.5967705E1,3.67297E0],"tree_param":{"num_deleted":"0","num_feature":"5000","num_nodes":"15","size_leaf_vector":"1"}}]},"name":"gbtree"},"learner_model_param":{"base_score":"5E-1","boost_from_average":"1","num_class":"0","num_feature":"5000","num_target":"1"},"objective":{"name":"binary:logistic","reg_loss_param":{"scale_pos_weight":"1"}}},"version":[3,0,4]}